<?xml version="1.0"?>
<opencv_storage>
<cascade>
  <stageType>BOOST</stageType>
  <featureType>HAAR</featureType>
  <height>30</height>
  <width>60</width>
  <stageParams>
    <boostType>GAB</boostType>
    <minHitRate>9.4999998807907104e-01</minHitRate>
    <maxFalseAlarm>5.0000000000000000e-01</maxFalseAlarm>
    <weightTrimRate>9.4999999999999996e-01</weightTrimRate>
    <maxDepth>1</maxDepth>
    <maxWeakCount>100</maxWeakCount></stageParams>
  <featureParams>
    <maxCatCount>0</maxCatCount>
    <featSize>1</featSize>
    <mode>BASIC</mode></featureParams>
  <stageNum>8</stageNum>
  <stages>
    <!-- stage 0 -->
    <_>
      <maxWeakCount>3</maxWeakCount>
      <stageThreshold>-1.4686509370803833e+00</stageThreshold>
      <weakClassifiers>
        <_>
          <internalNodes>
            0 -1 21 3.6527444608509541e-03</internalNodes>
          <leafValues>
            -9.3508112430572510e-01 -2.0408162847161293e-02</leafValues></_>
        <_>
          <internalNodes>
            0 -1 18 -3.1493110582232475e-03</internalNodes>
          <leafValues>
            6.2978065013885498e-01 -7.2492814064025879e-01</leafValues></_>
        <_>
          <internalNodes>
            0 -1 26 -2.7494300156831741e-02</internalNodes>
          <leafValues>
            4.6673366427421570e-01 -7.2331458330154419e-01</leafValues></_></weakClassifiers></_>
    <!-- stage 1 -->
    <_>
      <maxWeakCount>3</maxWeakCount>
      <stageThreshold>-1.3984313011169434e+00</stageThreshold>
      <weakClassifiers>
        <_>
          <internalNodes>
            0 -1 15 6.5262736752629280e-03</internalNodes>
          <leafValues>
            -9.1137725114822388e-01 7.3333334922790527e-01</leafValues></_>
        <_>
          <internalNodes>
            0 -1 5 5.3765379561809823e-06</internalNodes>
          <leafValues>
            -8.6358147859573364e-01 1.9268769025802612e-01</leafValues></_>
        <_>
          <internalNodes>
            0 -1 3 -2.4449484044453129e-05</internalNodes>
          <leafValues>
            4.9646019935607910e-01 -6.7974174022674561e-01</leafValues></_></weakClassifiers></_>
    <!-- stage 2 -->
    <_>
      <maxWeakCount>5</maxWeakCount>
      <stageThreshold>-1.7360068559646606e+00</stageThreshold>
      <weakClassifiers>
        <_>
          <internalNodes>
            0 -1 2 1.5266311168670654e-01</internalNodes>
          <leafValues>
            -9.1127097606658936e-01 6.2500000000000000e-01</leafValues></_>
        <_>
          <internalNodes>
            0 -1 1 4.1226309537887573e-01</internalNodes>
          <leafValues>
            -6.8013113737106323e-01 6.6805386543273926e-01</leafValues></_>
        <_>
          <internalNodes>
            0 -1 22 -1.7273295670747757e-03</internalNodes>
          <leafValues>
            -9.0711390972137451e-01 2.2746264934539795e-01</leafValues></_>
        <_>
          <internalNodes>
            0 -1 27 5.1463423296809196e-03</internalNodes>
          <leafValues>
            -7.3706740140914917e-01 3.2328167557716370e-01</leafValues></_>
        <_>
          <internalNodes>
            0 -1 11 6.3169350141834002e-06</internalNodes>
          <leafValues>
            -7.6816743612289429e-01 3.6500000953674316e-01</leafValues></_></weakClassifiers></_>
    <!-- stage 3 -->
    <_>
      <maxWeakCount>4</maxWeakCount>
      <stageThreshold>-1.3432220220565796e+00</stageThreshold>
      <weakClassifiers>
        <_>
          <internalNodes>
            0 -1 0 3.4701925516128540e-01</internalNodes>
          <leafValues>
            -9.0238094329833984e-01 8.0000001192092896e-01</leafValues></_>
        <_>
          <internalNodes>
            0 -1 7 1.1174136400222778e-01</internalNodes>
          <leafValues>
            -7.2761082649230957e-01 2.0927751064300537e-01</leafValues></_>
        <_>
          <internalNodes>
            0 -1 9 -1.7126859165728092e-04</internalNodes>
          <leafValues>
            -8.8646686077117920e-01 2.1921375393867493e-01</leafValues></_>
        <_>
          <internalNodes>
            0 -1 20 -2.7804067358374596e-03</internalNodes>
          <leafValues>
            -9.1799372434616089e-01 2.3634828627109528e-01</leafValues></_></weakClassifiers></_>
    <!-- stage 4 -->
    <_>
      <maxWeakCount>4</maxWeakCount>
      <stageThreshold>-1.5820140838623047e+00</stageThreshold>
      <weakClassifiers>
        <_>
          <internalNodes>
            0 -1 23 1.6479024197906256e-03</internalNodes>
          <leafValues>
            -9.0669858455657959e-01 5.7142859697341919e-01</leafValues></_>
        <_>
          <internalNodes>
            0 -1 25 -1.5886329347267747e-03</internalNodes>
          <leafValues>
            4.5388674736022949e-01 -6.7759555578231812e-01</leafValues></_>
        <_>
          <internalNodes>
            0 -1 12 -3.9567366242408752e-02</internalNodes>
          <leafValues>
            4.3350213766098022e-01 -6.3468950986862183e-01</leafValues></_>
        <_>
          <internalNodes>
            0 -1 30 2.0227405184414238e-04</internalNodes>
          <leafValues>
            -4.3122217059135437e-01 6.6835802793502808e-01</leafValues></_></weakClassifiers></_>
    <!-- stage 5 -->
    <_>
      <maxWeakCount>4</maxWeakCount>
      <stageThreshold>-1.7067750692367554e+00</stageThreshold>
      <weakClassifiers>
        <_>
          <internalNodes>
            0 -1 17 3.2323768828064203e-03</internalNodes>
          <leafValues>
            -9.0419161319732666e-01 3.3333334326744080e-01</leafValues></_>
        <_>
          <internalNodes>
            0 -1 8 -9.0071342128794640e-05</internalNodes>
          <leafValues>
            2.3556864261627197e-01 -7.1972990036010742e-01</leafValues></_>
        <_>
          <internalNodes>
            0 -1 31 -1.2554510612972081e-04</internalNodes>
          <leafValues>
            5.0406485795974731e-01 -4.9787428975105286e-01</leafValues></_>
        <_>
          <internalNodes>
            0 -1 13 -1.6717618564143777e-05</internalNodes>
          <leafValues>
            4.1502070426940918e-01 -5.3878891468048096e-01</leafValues></_></weakClassifiers></_>
    <!-- stage 6 -->
    <_>
      <maxWeakCount>5</maxWeakCount>
      <stageThreshold>-1.4466081857681274e+00</stageThreshold>
      <weakClassifiers>
        <_>
          <internalNodes>
            0 -1 24 -2.2465311922132969e-03</internalNodes>
          <leafValues>
            1. -8.9573460817337036e-01</leafValues></_>
        <_>
          <internalNodes>
            0 -1 6 1.8043356249108911e-04</internalNodes>
          <leafValues>
            -6.5609151124954224e-01 3.7567153573036194e-01</leafValues></_>
        <_>
          <internalNodes>
            0 -1 29 3.1108947587199509e-04</internalNodes>
          <leafValues>
            -3.8778525590896606e-01 6.2935435771942139e-01</leafValues></_>
        <_>
          <internalNodes>
            0 -1 28 8.9547029347158968e-05</internalNodes>
          <leafValues>
            -8.7362200021743774e-01 2.9223209619522095e-01</leafValues></_>
        <_>
          <internalNodes>
            0 -1 10 -2.2406941279768944e-03</internalNodes>
          <leafValues>
            -1. 2.0077101886272430e-01</leafValues></_></weakClassifiers></_>
    <!-- stage 7 -->
    <_>
      <maxWeakCount>4</maxWeakCount>
      <stageThreshold>-1.1708246469497681e+00</stageThreshold>
      <weakClassifiers>
        <_>
          <internalNodes>
            0 -1 19 -6.5748719498515129e-03</internalNodes>
          <leafValues>
            1.2500000000000000e-01 -9.0167868137359619e-01</leafValues></_>
        <_>
          <internalNodes>
            0 -1 16 -6.6870206501334906e-04</internalNodes>
          <leafValues>
            4.1009250283241272e-01 -6.3064545392990112e-01</leafValues></_>
        <_>
          <internalNodes>
            0 -1 4 3.7341420538723469e-03</internalNodes>
          <leafValues>
            -8.3391290903091431e-01 2.0184423029422760e-01</leafValues></_>
        <_>
          <internalNodes>
            0 -1 14 6.0431606834754348e-04</internalNodes>
          <leafValues>
            1.6873370110988617e-01 -8.8061511516571045e-01</leafValues></_></weakClassifiers></_></stages>
  <features>
    <_>
      <rects>
        <_>
          0 0 50 12 -1.</_>
        <_>
          25 0 25 12 2.</_></rects>
      <tilted>0</tilted></_>
    <_>
      <rects>
        <_>
          0 0 55 30 -1.</_>
        <_>
          0 15 55 15 2.</_></rects>
      <tilted>0</tilted></_>
    <_>
      <rects>
        <_>
          0 1 60 4 -1.</_>
        <_>
          20 1 20 4 3.</_></rects>
      <tilted>0</tilted></_>
    <_>
      <rects>
        <_>
          1 1 2 2 -1.</_>
        <_>
          1 1 1 1 2.</_>
        <_>
          2 2 1 1 2.</_></rects>
      <tilted>0</tilted></_>
    <_>
      <rects>
        <_>
          1 7 12 18 -1.</_>
        <_>
          7 7 6 18 2.</_></rects>
      <tilted>0</tilted></_>
    <_>
      <rects>
        <_>
          1 26 2 1 -1.</_>
        <_>
          2 26 1 1 2.</_></rects>
      <tilted>0</tilted></_>
    <_>
      <rects>
        <_>
          3 6 2 2 -1.</_>
        <_>
          3 6 1 1 2.</_>
        <_>
          4 7 1 1 2.</_></rects>
      <tilted>0</tilted></_>
    <_>
      <rects>
        <_>
          6 2 54 5 -1.</_>
        <_>
          24 2 18 5 3.</_></rects>
      <tilted>0</tilted></_>
    <_>
      <rects>
        <_>
          6 7 2 2 -1.</_>
        <_>
          6 7 1 1 2.</_>
        <_>
          7 8 1 1 2.</_></rects>
      <tilted>0</tilted></_>
    <_>
      <rects>
        <_>
          7 21 6 1 -1.</_>
        <_>
          9 21 2 1 3.</_></rects>
      <tilted>0</tilted></_>
    <_>
      <rects>
        <_>
          9 16 27 2 -1.</_>
        <_>
          18 16 9 2 3.</_></rects>
      <tilted>0</tilted></_>
    <_>
      <rects>
        <_>
          9 18 4 6 -1.</_>
        <_>
          11 18 2 6 2.</_></rects>
      <tilted>0</tilted></_>
    <_>
      <rects>
        <_>
          10 2 26 28 -1.</_>
        <_>
          10 2 13 14 2.</_>
        <_>
          23 16 13 14 2.</_></rects>
      <tilted>0</tilted></_>
    <_>
      <rects>
        <_>
          11 6 2 4 -1.</_>
        <_>
          11 6 1 2 2.</_>
        <_>
          12 8 1 2 2.</_></rects>
      <tilted>0</tilted></_>
    <_>
      <rects>
        <_>
          18 15 6 2 -1.</_>
        <_>
          21 15 3 2 2.</_></rects>
      <tilted>0</tilted></_>
    <_>
      <rects>
        <_>
          20 0 26 3 -1.</_>
        <_>
          20 1 26 1 3.</_></rects>
      <tilted>0</tilted></_>
    <_>
      <rects>
        <_>
          20 2 4 2 -1.</_>
        <_>
          20 2 2 1 2.</_>
        <_>
          22 3 2 1 2.</_></rects>
      <tilted>0</tilted></_>
    <_>
      <rects>
        <_>
          20 6 14 2 -1.</_>
        <_>
          20 6 7 1 2.</_>
        <_>
          27 7 7 1 2.</_></rects>
      <tilted>0</tilted></_>
    <_>
      <rects>
        <_>
          21 0 21 3 -1.</_>
        <_>
          21 1 21 1 3.</_></rects>
      <tilted>0</tilted></_>
    <_>
      <rects>
        <_>
          21 2 20 2 -1.</_>
        <_>
          21 2 10 1 2.</_>
        <_>
          31 3 10 1 2.</_></rects>
      <tilted>0</tilted></_>
    <_>
      <rects>
        <_>
          21 25 18 3 -1.</_>
        <_>
          27 25 6 3 3.</_></rects>
      <tilted>0</tilted></_>
    <_>
      <rects>
        <_>
          22 0 25 2 -1.</_>
        <_>
          22 1 25 1 2.</_></rects>
      <tilted>0</tilted></_>
    <_>
      <rects>
        <_>
          27 14 10 14 -1.</_>
        <_>
          27 14 5 7 2.</_>
        <_>
          32 21 5 7 2.</_></rects>
      <tilted>0</tilted></_>
    <_>
      <rects>
        <_>
          28 0 2 3 -1.</_>
        <_>
          28 1 2 1 3.</_></rects>
      <tilted>0</tilted></_>
    <_>
      <rects>
        <_>
          36 4 2 3 -1.</_>
        <_>
          36 5 2 1 3.</_></rects>
      <tilted>0</tilted></_>
    <_>
      <rects>
        <_>
          37 5 9 3 -1.</_>
        <_>
          37 6 9 1 3.</_></rects>
      <tilted>0</tilted></_>
    <_>
      <rects>
        <_>
          44 1 16 19 -1.</_>
        <_>
          52 1 8 19 2.</_></rects>
      <tilted>0</tilted></_>
    <_>
      <rects>
        <_>
          50 0 8 24 -1.</_>
        <_>
          50 12 8 12 2.</_></rects>
      <tilted>0</tilted></_>
    <_>
      <rects>
        <_>
          53 3 1 20 -1.</_>
        <_>
          53 13 1 10 2.</_></rects>
      <tilted>0</tilted></_>
    <_>
      <rects>
        <_>
          55 11 4 2 -1.</_>
        <_>
          55 11 2 1 2.</_>
        <_>
          57 12 2 1 2.</_></rects>
      <tilted>0</tilted></_>
    <_>
      <rects>
        <_>
          56 1 3 2 -1.</_>
        <_>
          57 1 1 2 3.</_></rects>
      <tilted>0</tilted></_>
    <_>
      <rects>
        <_>
          56 23 4 2 -1.</_>
        <_>
          56 23 2 1 2.</_>
        <_>
          58 24 2 1 2.</_></rects>
      <tilted>0</tilted></_></features></cascade>
</opencv_storage>
